digraph Tree {
node [shape=box] ;
0 [label="X[1] <= 51.0\ngini = 0.499\nsamples = 59\nvalue = [31, 28]"] ;
1 [label="X[1] <= 18.5\ngini = 0.482\nsamples = 52\nvalue = [31, 21]"] ;
0 -> 1 [labeldistance=2.5, labelangle=45, headlabel="True"] ;
2 [label="X[1] <= 5.5\ngini = 0.32\nsamples = 10\nvalue = [2, 8]"] ;
1 -> 2 ;
3 [label="gini = 0.0\nsamples = 4\nvalue = [0, 4]"] ;
2 -> 3 ;
4 [label="X[1] <= 7.0\ngini = 0.444\nsamples = 6\nvalue = [2, 4]"] ;
2 -> 4 ;
5 [label="gini = 0.0\nsamples = 2\nvalue = [2, 0]"] ;
4 -> 5 ;
6 [label="gini = 0.0\nsamples = 4\nvalue = [0, 4]"] ;
4 -> 6 ;
7 [label="X[0] <= 43.0\ngini = 0.427\nsamples = 42\nvalue = [29, 13]"] ;
1 -> 7 ;
8 [label="X[1] <= 45.5\ngini = 0.491\nsamples = 30\nvalue = [17, 13]"] ;
7 -> 8 ;
9 [label="X[0] <= 12.5\ngini = 0.466\nsamples = 27\nvalue = [17, 10]"] ;
8 -> 9 ;
10 [label="gini = 0.0\nsamples = 2\nvalue = [0, 2]"] ;
9 -> 10 ;
11 [label="X[0] <= 27.0\ngini = 0.435\nsamples = 25\nvalue = [17, 8]"] ;
9 -> 11 ;
12 [label="X[1] <= 29.5\ngini = 0.278\nsamples = 12\nvalue = [10, 2]"] ;
11 -> 12 ;
13 [label="X[1] <= 26.5\ngini = 0.5\nsamples = 4\nvalue = [2, 2]"] ;
12 -> 13 ;
14 [label="X[0] <= 16.5\ngini = 0.444\nsamples = 3\nvalue = [2, 1]"] ;
13 -> 14 ;
15 [label="gini = 0.0\nsamples = 1\nvalue = [0, 1]"] ;
14 -> 15 ;
16 [label="gini = 0.0\nsamples = 2\nvalue = [2, 0]"] ;
14 -> 16 ;
17 [label="gini = 0.0\nsamples = 1\nvalue = [0, 1]"] ;
13 -> 17 ;
18 [label="gini = 0.0\nsamples = 8\nvalue = [8, 0]"] ;
12 -> 18 ;
19 [label="X[1] <= 34.5\ngini = 0.497\nsamples = 13\nvalue = [7, 6]"] ;
11 -> 19 ;
20 [label="gini = 0.0\nsamples = 5\nvalue = [5, 0]"] ;
19 -> 20 ;
21 [label="X[1] <= 43.0\ngini = 0.375\nsamples = 8\nvalue = [2, 6]"] ;
19 -> 21 ;
22 [label="gini = 0.0\nsamples = 4\nvalue = [0, 4]"] ;
21 -> 22 ;
23 [label="X[0] <= 28.5\ngini = 0.5\nsamples = 4\nvalue = [2, 2]"] ;
21 -> 23 ;
24 [label="gini = 0.0\nsamples = 1\nvalue = [1, 0]"] ;
23 -> 24 ;
25 [label="X[0] <= 36.0\ngini = 0.444\nsamples = 3\nvalue = [1, 2]"] ;
23 -> 25 ;
26 [label="gini = 0.0\nsamples = 2\nvalue = [0, 2]"] ;
25 -> 26 ;
27 [label="gini = 0.0\nsamples = 1\nvalue = [1, 0]"] ;
25 -> 27 ;
28 [label="gini = 0.0\nsamples = 3\nvalue = [0, 3]"] ;
8 -> 28 ;
29 [label="gini = 0.0\nsamples = 12\nvalue = [12, 0]"] ;
7 -> 29 ;
30 [label="gini = 0.0\nsamples = 7\nvalue = [0, 7]"] ;
0 -> 30 [labeldistance=2.5, labelangle=-45, headlabel="False"] ;
}